<?xml version="1.0"?>
<opencv_storage>
<cascade>
  <stageType>BOOST</stageType>
  <featureType>LBP</featureType>
  <height>20</height>
  <width>20</width>
  <stageParams>
    <boostType>GAB</boostType>
    <minHitRate>9.9800002574920654e-01</minHitRate>
    <maxFalseAlarm>3.0000001192092896e-01</maxFalseAlarm>
    <weightTrimRate>9.4999999999999996e-01</weightTrimRate>
    <maxDepth>1</maxDepth>
    <maxWeakCount>100</maxWeakCount></stageParams>
  <featureParams>
    <maxCatCount>256</maxCatCount>
    <featSize>1</featSize></featureParams>
  <stageNum>11</stageNum>
  <stages>
    <!-- stage 0 -->
    <_>
      <maxWeakCount>6</maxWeakCount>
      <stageThreshold>-1.3301962614059448e+00</stageThreshold>
      <weakClassifiers>
        <_>
          <internalNodes>
            0 -1 34 -148903774 1434664976 33620226 1598775970 1090618635
            1427111938 1376590082 -149466621</internalNodes>
          <leafValues>
            -6.7114096879959106e-01 6.1255741119384766e-01</leafValues></_>
        <_>
          <internalNodes>
            0 -1 6 -17836306 -286278002 -1360595292 -218235137
            -850395521 -312488084 -1182234 -16779301</internalNodes>
          <leafValues>
            -5.3869229555130005e-01 6.7458355426788330e-01</leafValues></_>
        <_>
          <internalNodes>
            0 -1 28 -415243537 672117087 169943218 -1877818732
            -1008102793 1250802203 1087906150 -522191241</internalNodes>
          <leafValues>
            -5.9824609756469727e-01 5.6863987445831299e-01</leafValues></_>
        <_>
          <internalNodes>
            0 -1 105 -201597241 76185770 -2012409790 -389147606
            1354121483 134267645 -387199498 -889192449</internalNodes>
          <leafValues>
            -5.5540812015533447e-01 5.9354794025421143e-01</leafValues></_>
        <_>
          <internalNodes>
            0 -1 22 -398205886 -402420568 -436173150 -1198857754
            -933455867 1258504860 -297279353 -219688233</internalNodes>
          <leafValues>
            -6.8486642837524414e-01 4.8231923580169678e-01</leafValues></_>
        <_>
          <internalNodes>
            0 -1 33 -775311092 277172236 553714001 -1725480431
            -737099624 8454282 889200010 1880076791</internalNodes>
          <leafValues>
            -6.6200417280197144e-01 5.1277709007263184e-01</leafValues></_></weakClassifiers></_>
    <!-- stage 1 -->
    <_>
      <maxWeakCount>9</maxWeakCount>
      <stageThreshold>-9.0849751234054565e-01</stageThreshold>
      <weakClassifiers>
        <_>
          <internalNodes>
            0 -1 113 -67115038 1869606638 -226574750 -218103826 -8945842
            2100297566 2011688546 -25166217</internalNodes>
          <leafValues>
            -5.4231977462768555e-01 5.7843923568725586e-01</leafValues></_>
        <_>
          <internalNodes>
            0 -1 25 -204742486 -826105722 268607680 -120811134
            1129488654 -1971257280 -888093488 -58201105</internalNodes>
          <leafValues>
            -6.2384194135665894e-01 4.6265190839767456e-01</leafValues></_>
        <_>
          <internalNodes>
            0 -1 50 -774113288 -184463075 285218238 -2142123 -657860212
            -905951231 1418977980 -643171844</internalNodes>
          <leafValues>
            -5.4182457923889160e-01 5.2938514947891235e-01</leafValues></_>
        <_>
          <internalNodes>
            0 -1 112 -761800722 1124499746 -1857334960 -1003245698
            268636168 1177170437 -527228014 -423101753</internalNodes>
          <leafValues>
            -5.8665722608566284e-01 4.4969344139099121e-01</leafValues></_>
        <_>
          <internalNodes>
            0 -1 45 1368129518 1935843778 1073828096 -544915450
            1288274318 -285048766 1108050442 812886695</internalNodes>
          <leafValues>
            -5.4765129089355469e-01 4.9962228536605835e-01</leafValues></_>
        <_>
          <internalNodes>
            0 -1 31 1905774618 -243179506 1359024285 1037504991
            1101189289 1955250249 1380613339 593216399</internalNodes>
          <leafValues>
            -5.6151449680328369e-01 4.7095799446105957e-01</leafValues></_>
        <_>
          <internalNodes>
            0 -1 1 1966076652 233307886 -1296041250 -2069889298
            -671091716 -25823363 -1795820810 -1375734546</internalNodes>
          <leafValues>
            -5.0149911642074585e-01 5.3230619430541992e-01</leafValues></_>
        <_>
          <internalNodes>
            0 -1 49 -621090852 -1319239382 285757911 -242057936 2697240
            -96468856 960710719 -94187254</internalNodes>
          <leafValues>
            -5.8348417282104492e-01 4.7203725576400757e-01</leafValues></_>
        <_>
          <internalNodes>
            0 -1 85 -226241806 -1300103096 -1056964592 -604510622
            -737508958 715227138 -754876288 -739059998</internalNodes>
          <leafValues>
            -6.2992829084396362e-01 4.2546105384826660e-01</leafValues></_></weakClassifiers></_>
    <!-- stage 2 -->
    <_>
      <maxWeakCount>10</maxWeakCount>
      <stageThreshold>-3.9026319980621338e-01</stageThreshold>
      <weakClassifiers>
        <_>
          <internalNodes>
            0 -1 9 -738263570 -196612 -386 -131206 -419955224 1851563868
            -163848 -86248740</internalNodes>
          <leafValues>
            -4.6341463923454285e-01 5.7446807622909546e-01</leafValues></_>
        <_>
          <internalNodes>
            0 -1 87 2147360629 -1017224235 -669673633 -5254667
            -506889355 -895999976 -108554188 -135168415</internalNodes>
          <leafValues>
            -5.0036770105361938e-01 4.9003353714942932e-01</leafValues></_>
        <_>
          <internalNodes>
            0 -1 44 -1169896264 -239742703 -721036933 -551747322
            -2002730612 -58440044 430500303 -1275031359</internalNodes>
          <leafValues>
            -4.6833917498588562e-01 5.4990154504776001e-01</leafValues></_>
        <_>
          <internalNodes>
            0 -1 104 522973674 -1071021750 -801062676 -194231910
            -207892288 -937777014 -637086977 -863445077</internalNodes>
          <leafValues>
            -5.4351752996444702e-01 4.5681768655776978e-01</leafValues></_>
        <_>
          <internalNodes>
            0 -1 19 -92021046 -393880982 -804241358 -141229535
            2019774027 1263543308 -687220639 -68691070</internalNodes>
          <leafValues>
            -5.6546556949615479e-01 4.4676485657691956e-01</leafValues></_>
        <_>
          <internalNodes>
            0 -1 40 -1795050504 1898185052 -1824517380 -572878834
            -1832183576 693112993 -1375305560 942317580</internalNodes>
          <leafValues>
            -6.5609890222549438e-01 4.2269998788833618e-01</leafValues></_>
        <_>
          <internalNodes>
            0 -1 62 39369336 -631366309 -917303203 -1878915827 765084127
            -360570862 -769909832 -1933301093</internalNodes>
          <leafValues>
            -5.6461834907531738e-01 4.6867352724075317e-01</leafValues></_>
        <_>
          <internalNodes>
            0 -1 110 -201463825 -839909396 -5406 -218234901 1610413902
            1825177415 -201851945 -201588902</internalNodes>
          <leafValues>
            -5.0003814697265625e-01 5.2368789911270142e-01</leafValues></_>
        <_>
          <internalNodes>
            0 -1 11 1393670086 1431575962 293618545 -36405001 -650402104
            -1879043936 849601200 288456937</internalNodes>
          <leafValues>
            -5.9128904342651367e-01 4.2950507998466492e-01</leafValues></_>
        <_>
          <internalNodes>
            0 -1 7 -749209630 -78605870 1075140936 1344428499
            -2126981634 838896040 -1742722550 -197068054</internalNodes>
          <leafValues>
            -6.0034728050231934e-01 4.3018269538879395e-01</leafValues></_></weakClassifiers></_>
    <!-- stage 3 -->
    <_>
      <maxWeakCount>9</maxWeakCount>
      <stageThreshold>-9.7063022851943970e-01</stageThreshold>
      <weakClassifiers>
        <_>
          <internalNodes>
            0 -1 103 2147483374 1701707406 -721420562 -386994450 -39412
            -867377188 -33554693 -825294865</internalNodes>
          <leafValues>
            -4.3589743971824646e-01 5.4131531715393066e-01</leafValues></_>
        <_>
          <internalNodes>
            0 -1 54 -549787649 -1078222917 -1409302533 774848445
            633120695 1319894975 -1971937090 -2009401509</internalNodes>
          <leafValues>
            -4.2758011817932129e-01 5.2751326560974121e-01</leafValues></_>
        <_>
          <internalNodes>
            0 -1 14 -174066206 12963847 1078091882 1083142213 -197006581
            671713348 -1815879231 10221551</internalNodes>
          <leafValues>
            -6.4538460969924927e-01 3.5403084754943848e-01</leafValues></_>
        <_>
          <internalNodes>
            0 -1 43 574679252 -1112342533 2079981559 -1120829707
            778308607 -306217100 -1082786371 -1446946207</internalNodes>
          <leafValues>
            -4.6921849250793457e-01 5.1883429288864136e-01</leafValues></_>
        <_>
          <internalNodes>
            0 -1 26 -925894066 -234749590 -2078641584 -267200070
            -1062243798 -1803509629 -791522368 -53554749</internalNodes>
          <leafValues>
            -5.7069641351699829e-01 3.8968372344970703e-01</leafValues></_>
        <_>
          <internalNodes>
            0 -1 69 -654112591 -955399905 1375863682 -778501699
            -1049907207 -576157637 212730004 -639530528</internalNodes>
          <leafValues>
            -5.6443327665328979e-01 4.1638728976249695e-01</leafValues></_>
        <_>
          <internalNodes>
            0 -1 90 -608232067 1568571006 989495163 1591797759
            -1342570884 2062876661 2096783034 -252657869</internalNodes>
          <leafValues>
            -4.3226030468940735e-01 5.1946067810058594e-01</leafValues></_>
        <_>
          <internalNodes>
            0 -1 18 687268650 1667465226 -352267869 -983905973 142639266
            -862355317 1116934417 1701016386</internalNodes>
          <leafValues>
            -6.9862520694732666e-01 3.1382483243942261e-01</leafValues></_>
        <_>
          <internalNodes>
            0 -1 57 1652959652 1090757984 -2013020154 243515968
            1752254503 965054666 -2000556282 -7470111</internalNodes>
          <leafValues>
            -6.6729885339736938e-01 3.1258273124694824e-01</leafValues></_></weakClassifiers></_>
    <!-- stage 4 -->
    <_>
      <maxWeakCount>10</maxWeakCount>
      <stageThreshold>-1.0645055770874023e+00</stageThreshold>
      <weakClassifiers>
        <_>
          <internalNodes>
            0 -1 24 -674048004 -179219816 -1610591841 -716139558
            369901786 -1967619904 1527662815 1530942144</internalNodes>
          <leafValues>
            -5.9945130348205566e-01 4.3303874135017395e-01</leafValues></_>
        <_>
          <internalNodes>
            0 -1 52 -1572713772 1490059388 268852477 -573716143
            142647993 -1165320063 -511140369 -133937008</internalNodes>
          <leafValues>
            -5.3575581312179565e-01 4.3137919902801514e-01</leafValues></_>
        <_>
          <internalNodes>
            0 -1 97 -545816585 1601666429 611482751 -1250623747
            -71631652 -52002827 -1397686529 -923738370</internalNodes>
          <leafValues>
            -4.4223064184188843e-01 5.2419710159301758e-01</leafValues></_>
        <_>
          <internalNodes>
            0 -1 77 -1461307115 1004879743 2122202935 536420223 -82011
            -1627422721 -1092110354 -3147777</internalNodes>
          <leafValues>
            -3.0773222446441650e-01 6.6574251651763916e-01</leafValues></_>
        <_>
          <internalNodes>
            0 -1 16 1668272810 -2075997886 1140932828 1512001859
            -671065425 419766368 -259917605 -1068766781</internalNodes>
          <leafValues>
            -5.6075376272201538e-01 3.7586930394172668e-01</leafValues></_>
        <_>
          <internalNodes>
            0 -1 12 -371986130 -1388253104 1359158027 -720873207
            1140986445 1091252362 -1064672380 -213658866</internalNodes>
          <leafValues>
            -4.6681785583496094e-01 4.6374666690826416e-01</leafValues></_>
        <_>
          <internalNodes>
            0 -1 23 -715865174 -686372854 285282637 -218045785
            -1207646500 -1339389304 -2110765366 -666487425</internalNodes>
          <leafValues>
            -5.4633963108062744e-01 3.9966443181037903e-01</leafValues></_>
        <_>
          <internalNodes>
            0 -1 73 843731228 -1758330468 -1073739275 -612367958
            -784334120 1789526144 -1945474117 -2011145573</internalNodes>
          <leafValues>
            -5.1082795858383179e-01 4.5131391286849976e-01</leafValues></_>
        <_>
          <internalNodes>
            0 -1 84 -616376336 1662386434 -2080336116 318771984
            -2140495258 -1964496736 1497540892 -641605685</internalNodes>
          <leafValues>
            -5.6131911277770996e-01 4.2870813608169556e-01</leafValues></_>
        <_>
          <internalNodes>
            0 -1 71 2147433883 892223411 -1073742086 -1712570718
            -276914211 -554254525 -1386455588 -1730816810</internalNodes>
          <leafValues>
            -4.3595317006111145e-01 5.4183954000473022e-01</leafValues></_></weakClassifiers></_>
    <!-- stage 5 -->
    <_>
      <maxWeakCount>12</maxWeakCount>
      <stageThreshold>-6.7381292581558228e-01</stageThreshold>
      <weakClassifiers>
        <_>
          <internalNodes>
            0 -1 107 -41952274 549701324 -795709408 -489897238
            1494069384 537337988 1512425624 -524385394</internalNodes>
          <leafValues>
            -5.5497384071350098e-01 4.3454039096832275e-01</leafValues></_>
        <_>
          <internalNodes>
            0 -1 66 215780900 -168581725 -1660828998 -1155755522
            -1434213482 -125630184 -1551296017 -1073826821</internalNodes>
          <leafValues>
            -4.6080115437507629e-01 4.4052201509475708e-01</leafValues></_>
        <_>
          <internalNodes>
            0 -1 27 -414191378 -733265723 3219616 1892861391 558008386
            -1574133365 -925906220 -237503754</internalNodes>
          <leafValues>
            -5.4646015167236328e-01 3.4679672122001648e-01</leafValues></_>
        <_>
          <internalNodes>
            0 -1 74 -580948216 1156236865 134225038 1225663367
            1573638933 -381656930 -794787422 -772316601</internalNodes>
          <leafValues>
            -4.8671841621398926e-01 4.4050854444503784e-01</leafValues></_>
        <_>
          <internalNodes>
            0 -1 64 405801312 -3765727 302465109 -587128591 -2004048967
            -1920235135 -1801934661 -1095235948</internalNodes>
          <leafValues>
            -5.4192447662353516e-01 3.5218730568885803e-01</leafValues></_>
        <_>
          <internalNodes>
            0 -1 96 -775290884 219048226 -2146850726 -1830563150
            1808767242 168509738 -104203378 -1064837560</internalNodes>
          <leafValues>
            -5.7707744836807251e-01 3.7333154678344727e-01</leafValues></_>
        <_>
          <internalNodes>
            0 -1 101 -296099883 -208424673 551502336 -810380462
            -116676198 -761544563 -1988796400 1154840211</internalNodes>
          <leafValues>
            -5.1999384164810181e-01 4.0980175137519836e-01</leafValues></_>
        <_>
          <internalNodes>
            0 -1 83 1566034046 559015391 -1609168894 421659402 186626228
            -480542135 -1316781904 -459357049</internalNodes>
          <leafValues>
            -5.0345826148986816e-01 4.2209038138389587e-01</leafValues></_>
        <_>
          <internalNodes>
            0 -1 46 1962632119 -1273965815 -1878931061 591431899
            865157278 -670518887 1778388092 -1008228091</internalNodes>
          <leafValues>
            -3.9235356450080872e-01 5.3502541780471802e-01</leafValues></_>
        <_>
          <internalNodes>
            0 -1 61 -318828617 -587218945 -1073823765 -549540369
            1325184511 -50335753 930963263 -1111613786</internalNodes>
          <leafValues>
            -3.7307214736938477e-01 5.7900363206863403e-01</leafValues></_>
        <_>
          <internalNodes>
            0 -1 32 173734514 -1471852007 1342652689 1284654979
            688712145 682103202 -1013495168 1365989239</internalNodes>
          <leafValues>
            -6.6707259416580200e-01 3.2843077182769775e-01</leafValues></_>
        <_>
          <internalNodes>
            0 -1 112 -204221458 147701891 771202 1419350799 -1031628538
            1075314698 -217874543 -484716435</internalNodes>
          <leafValues>
            -5.7208621501922607e-01 3.6762830615043640e-01</leafValues></_></weakClassifiers></_>
    <!-- stage 6 -->
    <_>
      <maxWeakCount>12</maxWeakCount>
      <stageThreshold>-1.0915684700012207e+00</stageThreshold>
      <weakClassifiers>
        <_>
          <internalNodes>
            0 -1 67 -285825276 -172507137 -1879080962 -1078558722
            -1124122651 -134250529 -1342177540 -272634214</internalNodes>
          <leafValues>
            -3.7016573548316956e-01 5.4039496183395386e-01</leafValues></_>
        <_>
          <internalNodes>
            0 -1 39 -357045265 -50397185 -756318510 -117903373
            -883434115 -549732362 -16777285 -86507710</internalNodes>
          <leafValues>
            -3.2950714230537415e-01 5.2819073200225830e-01</leafValues></_>
        <_>
          <internalNodes>
            0 -1 10 -497298910 -248113250 -1744629285 -250146653
            1351594145 -813694847 620808655 1707453091</internalNodes>
          <leafValues>
            -4.9957776069641113e-01 3.6439636349678040e-01</leafValues></_>
        <_>
          <internalNodes>
            0 -1 82 -335546828 268551025 4261916 -2045263468 -904205868
            327354401 -1524853568 -1597508640</internalNodes>
          <leafValues>
            -5.6053477525711060e-01 3.3513125777244568e-01</leafValues></_>
        <_>
          <internalNodes>
            0 -1 21 441939586 -66286560 -1224716144 -102776350
            -1307459513 173735936 -1524411805 -403193005</internalNodes>
          <leafValues>
            -5.7253557443618774e-01 3.1787997484207153e-01</leafValues></_>
        <_>
          <internalNodes>
            0 -1 79 65537872 468553857 21090783 156017523 2031074164
            -133418846 456001720 -887415264</internalNodes>
          <leafValues>
            -5.1075923442840576e-01 4.0206873416900635e-01</leafValues></_>
        <_>
          <internalNodes>
            0 -1 92 -1019243591 -1593108600 4920157 -1925020915
            293855697 -1112899438 -1702250247 -980697084</internalNodes>
          <leafValues>
            -4.4540676474571228e-01 4.4324636459350586e-01</leafValues></_>
        <_>
          <internalNodes>
            0 -1 114 -484518918 -582588784 -1852690336 -1867398812
            -394119032 -779583480 339852246 -60556298</internalNodes>
          <leafValues>
            -4.8863151669502258e-01 3.9977124333381653e-01</leafValues></_>
        <_>
          <internalNodes>
            0 -1 37 670822334 -486867986 -1292928096 -136121630
            905936879 -30408880 2136342480 -16452256</internalNodes>
          <leafValues>
            -4.3572825193405151e-01 4.8441350460052490e-01</leafValues></_>
        <_>
          <internalNodes>
            0 -1 48 -1973951697 1353737175 1124180004 349696262
            -394122709 1344323633 -1067343350 814301831</internalNodes>
          <leafValues>
            -5.2161693572998047e-01 3.8167837262153625e-01</leafValues></_>
        <_>
          <internalNodes>
            0 -1 76 789120261 -126672621 -771652129 1384721150
            -1056958025 -645004605 1226772911 -630416579</internalNodes>
          <leafValues>
            -4.8431175947189331e-01 4.3271031975746155e-01</leafValues></_>
        <_>
          <internalNodes>
            0 -1 53 -1022902928 -622217626 1073446259 -168362127
            663492027 -286278155 -1479093129 -548694926</internalNodes>
          <leafValues>
            -3.7511047720909119e-01 5.6029331684112549e-01</leafValues></_></weakClassifiers></_>
    <!-- stage 7 -->
    <_>
      <maxWeakCount>10</maxWeakCount>
      <stageThreshold>-5.8700257539749146e-01</stageThreshold>
      <weakClassifiers>
        <_>
          <internalNodes>
            0 -1 94 -558477 1022885491 -553768194 -1098989580 -536871348
            -1057 -1090519300 -722143403</internalNodes>
          <leafValues>
            -3.7367916107177734e-01 5.0819671154022217e-01</leafValues></_>
        <_>
          <internalNodes>
            0 -1 35 1473707863 -407502913 1313701861 -288499770
            -407485081 -1916928554 -117488337 -725355193</internalNodes>
          <leafValues>
            -3.5130503773689270e-01 5.1879745721817017e-01</leafValues></_>
        <_>
          <internalNodes>
            0 -1 29 743948782 873959835 -1726540290 -19768976 291276998
            -792166398 927570298 -235025434</internalNodes>
          <leafValues>
            -4.7209024429321289e-01 3.7658771872520447e-01</leafValues></_>
        <_>
          <internalNodes>
            0 -1 95 -521684305 671936847 -803747338 1826091406
            1632595725 2128316657 -1552712708 -2053244083</internalNodes>
          <leafValues>
            -4.6552130579948425e-01 4.1125681996345520e-01</leafValues></_>
        <_>
          <internalNodes>
            0 -1 100 -573065254 -564314092 -1767984854 -203748200
            -670979677 -226141847 -1433316896 -470553610</internalNodes>
          <leafValues>
            -5.3571599721908569e-01 3.7885880470275879e-01</leafValues></_>
        <_>
          <internalNodes>
            0 -1 15 -586951026 -2138685116 350323442 -1728204461
            -1828001216 9061376 1737676934 2082724499</internalNodes>
          <leafValues>
            -5.9389978647232056e-01 3.6018434166908264e-01</leafValues></_>
        <_>
          <internalNodes>
            0 -1 42 -2101827286 328935817 1091813403 -649194909
            -343274791 -99964790 -1025496383 -995856271</internalNodes>
          <leafValues>
            -5.2726346254348755e-01 3.6641803383827209e-01</leafValues></_>
        <_>
          <internalNodes>
            0 -1 78 301796608 -82917998 1099692508 394330525 -1566525995
            -1165721078 1990953209 -18703990</internalNodes>
          <leafValues>
            -4.9886119365692139e-01 3.6048361659049988e-01</leafValues></_>
        <_>
          <internalNodes>
            0 -1 99 2009957623 -2019355808 -780041073 -925068343
            1627439852 -300871664 -985300903 -1040137610</internalNodes>
          <leafValues>
            -4.6336326003074646e-01 4.5420789718627930e-01</leafValues></_>
        <_>
          <internalNodes>
            0 -1 17 155820682 282722565 521405851 -783282006 -1735875167
            -1115617253 1082214583 1415858723</internalNodes>
          <leafValues>
            -6.7987912893295288e-01 3.0282109975814819e-01</leafValues></_></weakClassifiers></_>
    <!-- stage 8 -->
    <_>
      <maxWeakCount>12</maxWeakCount>
      <stageThreshold>-6.0611569881439209e-01</stageThreshold>
      <weakClassifiers>
        <_>
          <internalNodes>
            0 -1 93 -214860969 -545816587 -83951877 2125660159 -305650
            -268452490 -187564342 -265259966</internalNodes>
          <leafValues>
            -3.4848484396934509e-01 4.9650350213050842e-01</leafValues></_>
        <_>
          <internalNodes>
            0 -1 56 -1998069570 -1845783920 1879400603 1397473674
            -652669890 1926254747 834705766 2097146103</internalNodes>
          <leafValues>
            -4.7997736930847168e-01 3.6111673712730408e-01</leafValues></_>
        <_>
          <internalNodes>
            0 -1 0 -166796626 206303886 -1064889652 -1140146038
            -620503027 -1974941949 -142245676 -1466960886</internalNodes>
          <leafValues>
            -5.9571230411529541e-01 2.8175869584083557e-01</leafValues></_>
        <_>
          <internalNodes>
            0 -1 70 638976770 1981661476 -1013857441 1598193995
            -1970675279 -1148682198 596220589 -1091141788</internalNodes>
          <leafValues>
            -4.5399147272109985e-01 3.7485650181770325e-01</leafValues></_>
        <_>
          <internalNodes>
            0 -1 109 2107108318 1613754506 1357987922 282510734
            395685962 1619681432 2076436674 -951717157</internalNodes>
          <leafValues>
            -4.5424041152000427e-01 3.8012677431106567e-01</leafValues></_>
        <_>
          <internalNodes>
            0 -1 88 -472227737 -1240133306 276939231 -1685973938
            -351344127 -48660352 -1473590540 -79822312</internalNodes>
          <leafValues>
            -4.3892329931259155e-01 4.0487241744995117e-01</leafValues></_>
        <_>
          <internalNodes>
            0 -1 4 896783694 1392632013 34079387 1897210273 -1450571320
            2080385242 1772071625 1128577485</internalNodes>
          <leafValues>
            -5.5826479196548462e-01 3.3194008469581604e-01</leafValues></_>
        <_>
          <internalNodes>
            0 -1 102 1601653981 225443454 -2097176 -1613775105
            -269046086 -948011284 -1241514243 -928385026</internalNodes>
          <leafValues>
            -4.0202671289443970e-01 4.9702820181846619e-01</leafValues></_>
        <_>
          <internalNodes>
            0 -1 36 1645477371 945553424 -1465888272 1562383523
            1913056843 -536837472 541500947 -29081599</internalNodes>
          <leafValues>
            -4.6567708253860474e-01 4.2288559675216675e-01</leafValues></_>
        <_>
          <internalNodes>
            0 -1 5 -858355190 -295337910 -1820291007 -1811007039
            340156682 -1706950421 1109763467 -800725233</internalNodes>
          <leafValues>
            -5.3581428527832031e-01 3.6133098602294922e-01</leafValues></_>
        <_>
          <internalNodes>
            0 -1 13 2076661315 764253011 -1609496576 1752928083
            -1415835574 -2096807159 -1023053360 -1110059311</internalNodes>
          <leafValues>
            -4.9193730950355530e-01 3.9760830998420715e-01</leafValues></_>
        <_>
          <internalNodes>
            0 -1 51 -1856880214 1347096835 1073222 308024194 1921654856
            -1936449495 -1383393058 -65867522</internalNodes>
          <leafValues>
            -4.9639701843261719e-01 4.1385194659233093e-01</leafValues></_></weakClassifiers></_>
    <!-- stage 9 -->
    <_>
      <maxWeakCount>14</maxWeakCount>
      <stageThreshold>-5.7643580436706543e-01</stageThreshold>
      <weakClassifiers>
        <_>
          <internalNodes>
            0 -1 68 -866500764 -9126785 -1107362433 -1079365634
            1878319101 -34079041 534339572 -1384505670</internalNodes>
          <leafValues>
            -4.0022295713424683e-01 4.2900997400283813e-01</leafValues></_>
        <_>
          <internalNodes>
            0 -1 47 -849 1011253173 -50206 735967102 -1227379570
            -28508241 1332578180 -201134353</internalNodes>
          <leafValues>
            -3.5851630568504333e-01 4.3691074848175049e-01</leafValues></_>
        <_>
          <internalNodes>
            0 -1 8 -255730700 -2146286634 1016503422 33878570 -947328196
            -1849523701 -1269128837 -2144939809</internalNodes>
          <leafValues>
            -5.5708414316177368e-01 2.9333660006523132e-01</leafValues></_>
        <_>
          <internalNodes>
            0 -1 20 -2083559186 -440094708 -1852745696 1978515800
            1766091329 -331282336 285428310 -940090045</internalNodes>
          <leafValues>
            -5.2942150831222534e-01 3.2601222395896912e-01</leafValues></_>
        <_>
          <internalNodes>
            0 -1 72 -533702920 303564116 -2120346089 -684371361
            -1296550945 -657915771 -1719600407 -5763427</internalNodes>
          <leafValues>
            -4.4309800863265991e-01 4.1604059934616089e-01</leafValues></_>
        <_>
          <internalNodes>
            0 -1 80 -419811793 -50921477 -1090867265 -622593 -1887586314
            -1614823435 805159995 -826948382</internalNodes>
          <leafValues>
            -3.7362208962440491e-01 4.7977858781814575e-01</leafValues></_>
        <_>
          <internalNodes>
            0 -1 3 134354330 -111672814 335550506 -753794752 295767284
            1402638514 814745855 729320602</internalNodes>
          <leafValues>
            -4.5926579833030701e-01 3.9165580272674561e-01</leafValues></_>
        <_>
          <internalNodes>
            0 -1 86 1139119516 -178598114 1233435008 -380468530
            -1476286064 -1037528952 -1464761855 -907158380</internalNodes>
          <leafValues>
            -5.4948878288269043e-01 3.0578577518463135e-01</leafValues></_>
        <_>
          <internalNodes>
            0 -1 30 327890784 -641609401 1074610195 -573628287
            1786819269 -1182433271 -1874575175 428425312</internalNodes>
          <leafValues>
            -5.6151515245437622e-01 3.5326448082923889e-01</leafValues></_>
        <_>
          <internalNodes>
            0 -1 98 2061185549 788414467 68423759 -1196127737 -628117424
            -1144520444 -124616167 -923486002</internalNodes>
          <leafValues>
            -5.3445351123809814e-01 3.4156706929206848e-01</leafValues></_>
        <_>
          <internalNodes>
            0 -1 108 -713949953 607125486 -964759622 845938418
            1963851663 -61931522 1851258742 -925896118</internalNodes>
          <leafValues>
            -3.3894678950309753e-01 5.5743885040283203e-01</leafValues></_>
        <_>
          <internalNodes>
            0 -1 60 -258292483 -1074385041 -1342259206 334133116
            -30212329 -1116012609 2126290493 -399876582</internalNodes>
          <leafValues>
            -4.2362087965011597e-01 4.5202419161796570e-01</leafValues></_>
        <_>
          <internalNodes>
            0 -1 38 -414994262 2018809303 403259922 1955238144 17035584
            -471498238 -1085510742 -331101502</internalNodes>
          <leafValues>
            -5.0182688236236572e-01 3.7920999526977539e-01</leafValues></_>
        <_>
          <internalNodes>
            0 -1 63 571769724 393216001 1132499483 -1787641470
            1109119657 1358955266 1225384700 1225065183</internalNodes>
          <leafValues>
            -5.1929503679275513e-01 3.6613246798515320e-01</leafValues></_></weakClassifiers></_>
    <!-- stage 10 -->
    <_>
      <maxWeakCount>12</maxWeakCount>
      <stageThreshold>-4.1241571307182312e-01</stageThreshold>
      <weakClassifiers>
        <_>
          <internalNodes>
            0 -1 89 -134268299 2134195765 1056890463 509030199 -8996
            -8388625 -252134230 -63914127</internalNodes>
          <leafValues>
            -3.3969464898109436e-01 4.8263889551162720e-01</leafValues></_>
        <_>
          <internalNodes>
            0 -1 58 2115424678 -34388599 -804173793 -586530409
            -1816420082 -662118380 -1819957112 246235423</internalNodes>
          <leafValues>
            -4.3206763267517090e-01 3.7222364544868469e-01</leafValues></_>
        <_>
          <internalNodes>
            0 -1 65 984698884 -1652809487 -2012878857 -1248838625
            1623722061 -1098243965 -1667319617 -390989686</internalNodes>
          <leafValues>
            -3.9888083934783936e-01 3.9344042539596558e-01</leafValues></_>
        <_>
          <internalNodes>
            0 -1 91 -767033915 259690627 1074309648 -307609208
            -511519535 -1051623023 -1022974892 1096233861</internalNodes>
          <leafValues>
            -5.4743695259094238e-01 2.9394862055778503e-01</leafValues></_>
        <_>
          <internalNodes>
            0 -1 75 -1994600692 1836439 1629146 -1614067692 21679487
            -107429749 2030553491 -1318875161</internalNodes>
          <leafValues>
            -4.4148764014244080e-01 3.7125572562217712e-01</leafValues></_>
        <_>
          <internalNodes>
            0 -1 111 -552340902 1780779490 1082679296 1376579605
            1076566538 -922115925 -1072985833 -561583210</internalNodes>
          <leafValues>
            -5.1347911357879639e-01 3.2944789528846741e-01</leafValues></_>
        <_>
          <internalNodes>
            0 -1 41 453104688 1674380240 -1811854143 1435930745
            -365375302 -627250908 861188525 -885305260</internalNodes>
          <leafValues>
            -4.4115796685218811e-01 4.0618818998336792e-01</leafValues></_>
        <_>
          <internalNodes>
            0 -1 59 -843747949 -163774498 -268471774 -1078233117
            232738639 -2637891 -188761081 -86525469</internalNodes>
          <leafValues>
            -3.9680930972099304e-01 4.7488105297088623e-01</leafValues></_>
        <_>
          <internalNodes>
            0 -1 55 -1476547285 858136442 2147348463 2007855020
            -135271476 -443637883 1738368704 -143773767</internalNodes>
          <leafValues>
            -3.8730230927467346e-01 4.7834661602973938e-01</leafValues></_>
        <_>
          <internalNodes>
            0 -1 81 -348918417 1999023854 -276824395 1895284723
            1744309514 -898072867 468451051 -2086957882</internalNodes>
          <leafValues>
            -3.3817070722579956e-01 5.3602576255798340e-01</leafValues></_>
        <_>
          <internalNodes>
            0 -1 2 2031678196 890638612 293797954 -598847420 1123336342
            -1654912724 -1050646802 1718782718</internalNodes>
          <leafValues>
            -6.1654889583587646e-01 3.0354660749435425e-01</leafValues></_>
        <_>
          <internalNodes>
            0 -1 106 520612362 1348928328 346362064 -334761662
            2014896376 -394076150 1258856634 1143260106</internalNodes>
          <leafValues>
            -5.7988971471786499e-01 3.2434165477752686e-01</leafValues></_></weakClassifiers></_></stages>
  <features>
    <_>
      <rect>
        0 4 3 4</rect></_>
    <_>
      <rect>
        0 9 3 2</rect></_>
    <_>
      <rect>
        1 2 3 6</rect></_>
    <_>
      <rect>
        1 17 6 1</rect></_>
    <_>
      <rect>
        2 0 5 5</rect></_>
    <_>
      <rect>
        2 2 3 3</rect></_>
    <_>
      <rect>
        2 7 2 2</rect></_>
    <_>
      <rect>
        2 7 3 4</rect></_>
    <_>
      <rect>
        2 8 2 3</rect></_>
    <_>
      <rect>
        2 12 5 2</rect></_>
    <_>
      <rect>
        3 0 5 1</rect></_>
    <_>
      <rect>
        3 1 5 3</rect></_>
    <_>
      <rect>
        3 3 2 3</rect></_>
    <_>
      <rect>
        3 5 1 2</rect></_>
    <_>
      <rect>
        3 7 1 1</rect></_>
    <_>
      <rect>
        3 8 1 1</rect></_>
    <_>
      <rect>
        3 9 1 1</rect></_>
    <_>
      <rect>
        4 0 4 1</rect></_>
    <_>
      <rect>
        4 1 2 3</rect></_>
    <_>
      <rect>
        4 6 1 2</rect></_>
    <_>
      <rect>
        4 7 1 1</rect></_>
    <_>
      <rect>
        4 7 1 2</rect></_>
    <_>
      <rect>
        4 8 1 1</rect></_>
    <_>
      <rect>
        4 8 2 4</rect></_>
    <_>
      <rect>
        4 8 3 4</rect></_>
    <_>
      <rect>
        4 9 1 1</rect></_>
    <_>
      <rect>
        4 9 1 2</rect></_>
    <_>
      <rect>
        4 10 1 1</rect></_>
    <_>
      <rect>
        4 11 1 1</rect></_>
    <_>
      <rect>
        4 13 3 1</rect></_>
    <_>
      <rect>
        5 0 1 1</rect></_>
    <_>
      <rect>
        5 0 4 3</rect></_>
    <_>
      <rect>
        5 1 2 4</rect></_>
    <_>
      <rect>
        5 1 4 4</rect></_>
    <_>
      <rect>
        5 4 3 4</rect></_>
    <_>
      <rect>
        5 5 2 4</rect></_>
    <_>
      <rect>
        5 6 1 2</rect></_>
    <_>
      <rect>
        5 7 1 1</rect></_>
    <_>
      <rect>
        5 12 1 1</rect></_>
    <_>
      <rect>
        5 13 1 1</rect></_>
    <_>
      <rect>
        5 13 4 2</rect></_>
    <_>
      <rect>
        6 0 1 1</rect></_>
    <_>
      <rect>
        6 0 1 3</rect></_>
    <_>
      <rect>
        6 0 2 1</rect></_>
    <_>
      <rect>
        6 0 3 1</rect></_>
    <_>
      <rect>
        6 3 3 5</rect></_>
    <_>
      <rect>
        6 4 2 4</rect></_>
    <_>
      <rect>
        6 4 3 3</rect></_>
    <_>
      <rect>
        6 7 3 3</rect></_>
    <_>
      <rect>
        6 12 1 2</rect></_>
    <_>
      <rect>
        6 12 3 2</rect></_>
    <_>
      <rect>
        6 14 1 1</rect></_>
    <_>
      <rect>
        7 0 2 1</rect></_>
    <_>
      <rect>
        7 2 1 1</rect></_>
    <_>
      <rect>
        7 4 1 4</rect></_>
    <_>
      <rect>
        7 4 2 3</rect></_>
    <_>
      <rect>
        7 4 2 4</rect></_>
    <_>
      <rect>
        7 5 2 4</rect></_>
    <_>
      <rect>
        7 7 2 1</rect></_>
    <_>
      <rect>
        7 7 2 3</rect></_>
    <_>
      <rect>
        7 8 1 2</rect></_>
    <_>
      <rect>
        7 9 1 1</rect></_>
    <_>
      <rect>
        7 10 1 1</rect></_>
    <_>
      <rect>
        7 12 2 2</rect></_>
    <_>
      <rect>
        8 0 1 1</rect></_>
    <_>
      <rect>
        8 0 3 1</rect></_>
    <_>
      <rect>
        8 8 1 1</rect></_>
    <_>
      <rect>
        8 9 1 1</rect></_>
    <_>
      <rect>
        8 10 1 1</rect></_>
    <_>
      <rect>
        8 11 4 3</rect></_>
    <_>
      <rect>
        8 13 1 1</rect></_>
    <_>
      <rect>
        8 15 2 1</rect></_>
    <_>
      <rect>
        9 0 1 1</rect></_>
    <_>
      <rect>
        9 0 2 1</rect></_>
    <_>
      <rect>
        9 2 2 3</rect></_>
    <_>
      <rect>
        9 5 2 2</rect></_>
    <_>
      <rect>
        9 7 1 1</rect></_>
    <_>
      <rect>
        9 8 1 1</rect></_>
    <_>
      <rect>
        9 9 1 1</rect></_>
    <_>
      <rect>
        9 10 1 1</rect></_>
    <_>
      <rect>
        9 12 1 1</rect></_>
    <_>
      <rect>
        10 0 2 2</rect></_>
    <_>
      <rect>
        10 3 2 2</rect></_>
    <_>
      <rect>
        10 3 2 3</rect></_>
    <_>
      <rect>
        10 3 3 4</rect></_>
    <_>
      <rect>
        10 5 3 4</rect></_>
    <_>
      <rect>
        10 5 3 5</rect></_>
    <_>
      <rect>
        10 7 1 2</rect></_>
    <_>
      <rect>
        10 8 1 1</rect></_>
    <_>
      <rect>
        11 2 1 2</rect></_>
    <_>
      <rect>
        11 4 1 2</rect></_>
    <_>
      <rect>
        11 12 2 2</rect></_>
    <_>
      <rect>
        11 13 1 2</rect></_>
    <_>
      <rect>
        12 1 1 2</rect></_>
    <_>
      <rect>
        12 3 1 2</rect></_>
    <_>
      <rect>
        12 3 2 2</rect></_>
    <_>
      <rect>
        12 3 2 3</rect></_>
    <_>
      <rect>
        12 4 1 3</rect></_>
    <_>
      <rect>
        12 5 1 2</rect></_>
    <_>
      <rect>
        12 8 1 2</rect></_>
    <_>
      <rect>
        12 9 2 2</rect></_>
    <_>
      <rect>
        12 11 2 2</rect></_>
    <_>
      <rect>
        13 4 1 3</rect></_>
    <_>
      <rect>
        13 5 1 2</rect></_>
    <_>
      <rect>
        13 5 1 3</rect></_>
    <_>
      <rect>
        13 7 1 1</rect></_>
    <_>
      <rect>
        13 7 1 2</rect></_>
    <_>
      <rect>
        13 8 1 1</rect></_>
    <_>
      <rect>
        14 4 1 2</rect></_>
    <_>
      <rect>
        14 5 1 2</rect></_>
    <_>
      <rect>
        14 7 1 1</rect></_>
    <_>
      <rect>
        14 7 1 2</rect></_>
    <_>
      <rect>
        14 8 1 1</rect></_>
    <_>
      <rect>
        14 9 1 1</rect></_>
    <_>
      <rect>
        14 9 1 2</rect></_></features></cascade>
</opencv_storage>
