<?xml version="1.0"?>
<opencv_storage>
<cascade>
  <stageType>BOOST</stageType>
  <featureType>LBP</featureType>
  <height>20</height>
  <width>20</width>
  <stageParams>
    <boostType>GAB</boostType>
    <minHitRate>9.9900001287460327e-01</minHitRate>
    <maxFalseAlarm>4.0000000596046448e-01</maxFalseAlarm>
    <weightTrimRate>9.4999999999999996e-01</weightTrimRate>
    <maxDepth>1</maxDepth>
    <maxWeakCount>100</maxWeakCount></stageParams>
  <featureParams>
    <maxCatCount>256</maxCatCount>
    <featSize>1</featSize></featureParams>
  <stageNum>11</stageNum>
  <stages>
    <!-- stage 0 -->
    <_>
      <maxWeakCount>3</maxWeakCount>
      <stageThreshold>-1.0443868637084961e+00</stageThreshold>
      <weakClassifiers>
        <_>
          <internalNodes>
            0 -1 12 -167774209 1970665203 2013265919 2013265919
            -134359121 22542716 1610612735 2139095039</internalNodes>
          <leafValues>
            -8.3645319938659668e-01 8.8523209095001221e-01</leafValues></_>
        <_>
          <internalNodes>
            0 -1 7 -212090385 2135671115 327418003 -536901373 1107493111
            178978840 1930106271 2145326031</internalNodes>
          <leafValues>
            -8.6898708343505859e-01 7.2715502977371216e-01</leafValues></_>
        <_>
          <internalNodes>
            0 -1 56 -564134902 34337163 1073923264 -1060708322 1290431
            537632907 -653270817 -807407665</internalNodes>
          <leafValues>
            -9.0619057416915894e-01 6.6105347871780396e-01</leafValues></_></weakClassifiers></_>
    <!-- stage 1 -->
    <_>
      <maxWeakCount>4</maxWeakCount>
      <stageThreshold>-1.6290804147720337e+00</stageThreshold>
      <weakClassifiers>
        <_>
          <internalNodes>
            0 -1 6 -2100225 -34352301 553652637 -44858749 -268185409
            1342373899 -267999013 1945101307</internalNodes>
          <leafValues>
            -8.5077953338623047e-01 7.4039936065673828e-01</leafValues></_>
        <_>
          <internalNodes>
            0 -1 4 -538968101 -11562533 1375929227 -706264125 -595402565
            -115277694 -251151485 1946117907</internalNodes>
          <leafValues>
            -7.6944780349731445e-01 7.0218092203140259e-01</leafValues></_>
        <_>
          <internalNodes>
            0 -1 8 -19930453 -640429949 1912932747 -16048059 1359544394
            -1714419046 1932687611 -8444306</internalNodes>
          <leafValues>
            -7.5284421443939209e-01 6.5675681829452515e-01</leafValues></_>
        <_>
          <internalNodes>
            0 -1 62 -19931426 -1069071998 -2013183798 -523341150
            212034126 721666 1426102923 -265729</internalNodes>
          <leafValues>
            -7.2763758897781372e-01 6.7531603574752808e-01</leafValues></_></weakClassifiers></_>
    <!-- stage 2 -->
    <_>
      <maxWeakCount>4</maxWeakCount>
      <stageThreshold>-1.7814091444015503e+00</stageThreshold>
      <weakClassifiers>
        <_>
          <internalNodes>
            0 -1 41 -539493377 721883555 -1873717833 1064687279
            -41290785 792626317 -1354173953 1073724331</internalNodes>
          <leafValues>
            -8.5569620132446289e-01 6.2127661705017090e-01</leafValues></_>
        <_>
          <internalNodes>
            0 -1 35 -547357729 -134280745 -939369601 -169896583
            -745807109 -288621 -87596353 1885673221</internalNodes>
          <leafValues>
            -8.0935370922088623e-01 5.5909126996994019e-01</leafValues></_>
        <_>
          <internalNodes>
            0 -1 14 1433919455 -1751135906 1375788979 -746340105
            1635130183 -1154317937 1938191127 -75433897</internalNodes>
          <leafValues>
            -7.9197883605957031e-01 5.4533576965332031e-01</leafValues></_>
        <_>
          <internalNodes>
            0 -1 45 -537668163 1900613728 -662224847 2006401301
            -418144248 -92076915 -1978900002 1061143507</internalNodes>
          <leafValues>
            -8.0135321617126465e-01 5.5265849828720093e-01</leafValues></_></weakClassifiers></_>
    <!-- stage 3 -->
    <_>
      <maxWeakCount>4</maxWeakCount>
      <stageThreshold>-2.4482141435146332e-01</stageThreshold>
      <weakClassifiers>
        <_>
          <internalNodes>
            0 -1 5 -14483457 -1853746743 -1073655593 -786864177
            1494306561 -2002239333 621113871 -361276677</internalNodes>
          <leafValues>
            -7.0466881990432739e-01 6.6379982233047485e-01</leafValues></_>
        <_>
          <internalNodes>
            0 -1 57 -111681569 168711 940151028 -254684773 1091806991
            -913341693 -385642241 -50332225</internalNodes>
          <leafValues>
            -6.7595082521438599e-01 6.4570522308349609e-01</leafValues></_>
        <_>
          <internalNodes>
            0 -1 27 -656348931 -45248442 1947244031 -176349032
            -107431686 -381124583 -1719555142 -46833547</internalNodes>
          <leafValues>
            -6.3716161251068115e-01 6.9252252578735352e-01</leafValues></_>
        <_>
          <internalNodes>
            0 -1 29 -136577868 -679897200 -670924195 -1222924015
            -125056376 -604266040 1003400411 1004472047</internalNodes>
          <leafValues>
            -8.3928179740905762e-01 4.5130383968353271e-01</leafValues></_></weakClassifiers></_>
    <!-- stage 4 -->
    <_>
      <maxWeakCount>6</maxWeakCount>
      <stageThreshold>-8.3872836828231812e-01</stageThreshold>
      <weakClassifiers>
        <_>
          <internalNodes>
            0 -1 0 -111422465 -235814511 -1047492137 -176719162
            -2052087041 -34616440 -1148589653 1904696660</internalNodes>
          <leafValues>
            -6.8973749876022339e-01 5.7121878862380981e-01</leafValues></_>
        <_>
          <internalNodes>
            0 -1 10 -56103441 2038551706 -1199046289 -787742707
            105515726 1520391755 1804364715 1538944191</internalNodes>
          <leafValues>
            -8.4171998500823975e-01 4.4217881560325623e-01</leafValues></_>
        <_>
          <internalNodes>
            0 -1 17 -537401714 -115768685 -737984510 1514238074
            -745586684 -225927166 -180293034 -6952265</internalNodes>
          <leafValues>
            -7.3593658208847046e-01 4.6166476607322693e-01</leafValues></_>
        <_>
          <internalNodes>
            0 -1 20 -551425046 -1056894833 -1070514001 -523567033
            -914298118 -2130605949 -351744005 -154708109</internalNodes>
          <leafValues>
            -6.0717463493347168e-01 5.4619789123535156e-01</leafValues></_>
        <_>
          <internalNodes>
            0 -1 60 -422576914 1090569606 -1056931834 -157412134
            -251559025 -611643391 -770966626 -542378309</internalNodes>
          <leafValues>
            -7.2549694776535034e-01 4.5780283212661743e-01</leafValues></_>
        <_>
          <internalNodes>
            0 -1 32 -1681147496 -540211199 -1844150131 1163510145
            -658784034 -1718662967 -628577604 1848111762</internalNodes>
          <leafValues>
            -7.5857615470886230e-01 3.8043612241744995e-01</leafValues></_></weakClassifiers></_>
    <!-- stage 5 -->
    <_>
      <maxWeakCount>6</maxWeakCount>
      <stageThreshold>-8.8888704776763916e-01</stageThreshold>
      <weakClassifiers>
        <_>
          <internalNodes>
            0 -1 9 -203950081 -145633163 1208339545 -206842687
            -862998021 1936687871 -1450595921 2135663135</internalNodes>
          <leafValues>
            -7.2715574502944946e-01 5.3759664297103882e-01</leafValues></_>
        <_>
          <internalNodes>
            0 -1 34 -657001768 -229535273 16638 -44985967 -340597826
            -2553192 -2012116241 -64730319</internalNodes>
          <leafValues>
            -6.5131515264511108e-01 5.0337535142898560e-01</leafValues></_>
        <_>
          <internalNodes>
            0 -1 40 -36186889 1967204175 -1207757740 -1337699509
            -1207184709 -5742433 -1165755765 1223376815</internalNodes>
          <leafValues>
            -7.1789610385894775e-01 4.4327175617218018e-01</leafValues></_>
        <_>
          <internalNodes>
            0 -1 64 -127741982 -536684150 -1878472672 1957150731
            -978317312 -938961658 -505038751 -54645</internalNodes>
          <leafValues>
            -6.1388963460922241e-01 4.6703827381134033e-01</leafValues></_>
        <_>
          <internalNodes>
            0 -1 19 -335513440 -505393020 421086100 -40088768
            -1585211160 -382959475 -1425697799 -42901388</internalNodes>
          <leafValues>
            -7.5788688659667969e-01 3.8117778301239014e-01</leafValues></_>
        <_>
          <internalNodes>
            0 -1 49 -145228299 672053446 -1190831683 2110723013
            -163069775 361431173 948050332 215599577</internalNodes>
          <leafValues>
            -7.9542660713195801e-01 3.5352426767349243e-01</leafValues></_></weakClassifiers></_>
    <!-- stage 6 -->
    <_>
      <maxWeakCount>6</maxWeakCount>
      <stageThreshold>-7.1044254302978516e-01</stageThreshold>
      <weakClassifiers>
        <_>
          <internalNodes>
            0 -1 13 -878968961 -933937065 -2087115305 -784230781
            1422667895 -356415038 -243068109 -73021113</internalNodes>
          <leafValues>
            -6.4943253993988037e-01 5.0817340612411499e-01</leafValues></_>
        <_>
          <internalNodes>
            0 -1 54 -38052404 -673490871 1094799749 -540852199
            -1245592181 -994045727 -262547065 733435751</internalNodes>
          <leafValues>
            -8.0916815996170044e-01 3.7591576576232910e-01</leafValues></_>
        <_>
          <internalNodes>
            0 -1 47 -678565891 18326351 -804217162 -1328090935 998869915
            137596928 -3474693 -543163397</internalNodes>
          <leafValues>
            -5.9722614288330078e-01 4.8546320199966431e-01</leafValues></_>
        <_>
          <internalNodes>
            0 -1 33 1180388183 1904759175 1350610975 327762503
            1582255851 -400500069 1497451483 -1092939761</internalNodes>
          <leafValues>
            -6.4633989334106445e-01 4.8511919379234314e-01</leafValues></_>
        <_>
          <internalNodes>
            0 -1 39 1637044268 -682159431 -528432103 -2948606 -230648764
            -443908062 -1610309186 -1602575430</internalNodes>
          <leafValues>
            -6.2482869625091553e-01 4.9664521217346191e-01</leafValues></_>
        <_>
          <internalNodes>
            0 -1 63 -137895186 107708655 -1877732160 1950925043
            1392750795 178983041 -2113217385 -622074982</internalNodes>
          <leafValues>
            -6.9815295934677124e-01 4.1238960623741150e-01</leafValues></_></weakClassifiers></_>
    <!-- stage 7 -->
    <_>
      <maxWeakCount>7</maxWeakCount>
      <stageThreshold>-7.2370862960815430e-01</stageThreshold>
      <weakClassifiers>
        <_>
          <internalNodes>
            0 -1 21 -44983297 -11468519 1921126421 -37805991 -1459590725
            -83255285 -1161831762 1886911167</internalNodes>
          <leafValues>
            -6.2755101919174194e-01 4.8870056867599487e-01</leafValues></_>
        <_>
          <internalNodes>
            0 -1 15 -706755070 -237710121 -1828634624 -743995326
            -72660224 -1979596799 -766320128 -79204282</internalNodes>
          <leafValues>
            -8.1203895807266235e-01 3.2431173324584961e-01</leafValues></_>
        <_>
          <internalNodes>
            0 -1 55 497768828 -783871740 -981428461 1435435847
            1518455193 -1031568831 1497743361 722456769</internalNodes>
          <leafValues>
            -7.4420827627182007e-01 3.4458112716674805e-01</leafValues></_>
        <_>
          <internalNodes>
            0 -1 1 1526918135 -1975346654 335581338 -1625576063
            -1148737104 -1702181664 -1274373906 1714158251</internalNodes>
          <leafValues>
            -6.8659096956253052e-01 3.5928767919540405e-01</leafValues></_>
        <_>
          <internalNodes>
            0 -1 24 317382497 2039529539 -201223727 1250525200
            1444629467 1031899536 1252333721 1804290507</internalNodes>
          <leafValues>
            -8.2170587778091431e-01 3.2984742522239685e-01</leafValues></_>
        <_>
          <internalNodes>
            0 -1 59 1917974510 1267702186 1677725916 819413554 58819385
            1074824451 -1073139400 -170937681</internalNodes>
          <leafValues>
            -7.2409951686859131e-01 3.1573048233985901e-01</leafValues></_>
        <_>
          <internalNodes>
            0 -1 50 -774433445 2097500191 -1073561327 336962881
            1912776704 -243269632 319510920 1891226506</internalNodes>
          <leafValues>
            -6.1836272478103638e-01 4.4219642877578735e-01</leafValues></_></weakClassifiers></_>
    <!-- stage 8 -->
    <_>
      <maxWeakCount>9</maxWeakCount>
      <stageThreshold>-1.2485790252685547e+00</stageThreshold>
      <weakClassifiers>
        <_>
          <internalNodes>
            0 -1 11 -782772493 -1593003256 1343410384 -108148064
            -236198917 1008207910 -1610186256 -33851583</internalNodes>
          <leafValues>
            -5.5369925498962402e-01 4.8751837015151978e-01</leafValues></_>
        <_>
          <internalNodes>
            0 -1 52 -203475081 -145029106 -889154723 298599583
            -1165793048 -1819835989 -1424410375 1621410821</internalNodes>
          <leafValues>
            -6.2922739982604980e-01 4.0018334984779358e-01</leafValues></_>
        <_>
          <internalNodes>
            0 -1 58 2145124191 1732628765 402985170 -262892588 -49047138
            1073746090 -225732450 -33574598</internalNodes>
          <leafValues>
            -5.8896887302398682e-01 4.1153329610824585e-01</leafValues></_>
        <_>
          <internalNodes>
            0 -1 51 -878759666 -3726319 1434739099 2035582995 -394157745
            -393617364 20683433 1877273285</internalNodes>
          <leafValues>
            -5.5802893638610840e-01 4.4271853566169739e-01</leafValues></_>
        <_>
          <internalNodes>
            0 -1 31 -179621652 2036007313 -1063712726 -640441727
            -339174440 -1165451080 176994793 -94291081</internalNodes>
          <leafValues>
            -5.9813517332077026e-01 4.0343251824378967e-01</leafValues></_>
        <_>
          <internalNodes>
            0 -1 3 -896554789 813991439 -587200100 -310295459 -611751549
            1904249218 -1450375055 1744784079</internalNodes>
          <leafValues>
            -6.9540542364120483e-01 3.4722906351089478e-01</leafValues></_>
        <_>
          <internalNodes>
            0 -1 44 -1070882742 1427259909 318969174 -1718615725
            -2002780160 -1780285438 -132081526 -86369629</internalNodes>
          <leafValues>
            -5.1681244373321533e-01 5.0233918428421021e-01</leafValues></_>
        <_>
          <internalNodes>
            0 -1 26 -66332450 387537993 102480 -650014655 134752459
            1715568642 -1476351096 2076952267</internalNodes>
          <leafValues>
            -6.0412579774856567e-01 4.3499186635017395e-01</leafValues></_>
        <_>
          <internalNodes>
            0 -1 25 -607238340 -2011590549 1754266 269795330 -805275480
            -1878490999 -1971322722 -1157348663</internalNodes>
          <leafValues>
            -6.1442399024963379e-01 4.2566248774528503e-01</leafValues></_></weakClassifiers></_>
    <!-- stage 9 -->
    <_>
      <maxWeakCount>9</maxWeakCount>
      <stageThreshold>-7.2270256280899048e-01</stageThreshold>
      <weakClassifiers>
        <_>
          <internalNodes>
            0 -1 38 -781189121 122538061 -1656630832 -8083323 1758482922
            1067139313 1703043211 1039130816</internalNodes>
          <leafValues>
            -6.8152868747711182e-01 3.9949110150337219e-01</leafValues></_>
        <_>
          <internalNodes>
            0 -1 28 -686042117 1371930715 2047282009 -543181407
            -1870626674 -5263226 -834473505 -798539003</internalNodes>
          <leafValues>
            -5.6631678342819214e-01 4.1420987248420715e-01</leafValues></_>
        <_>
          <internalNodes>
            0 -1 37 -52970712 -1324602983 67329176 -1194802374
            -913972050 -1165993724 -919995688 802890608</internalNodes>
          <leafValues>
            -7.5306111574172974e-01 3.0475854873657227e-01</leafValues></_>
        <_>
          <internalNodes>
            0 -1 61 1474290190 683823298 -2147180410 -496967639
            1161904704 -1063059455 -532496214 -607460706</internalNodes>
          <leafValues>
            -7.2502475976943970e-01 3.0903300642967224e-01</leafValues></_>
        <_>
          <internalNodes>
            0 -1 18 -560468451 -749617087 269140083 -2147327872
            1611333721 -1199554488 -225883478 -216526870</internalNodes>
          <leafValues>
            -5.8778399229049683e-01 4.1532021760940552e-01</leafValues></_>
        <_>
          <internalNodes>
            0 -1 42 -1559101136 -1019215728 -2147232615 329433269
            -67179858 -125198336 -343830872 1058560760</internalNodes>
          <leafValues>
            -6.2581455707550049e-01 3.7017786502838135e-01</leafValues></_>
        <_>
          <internalNodes>
            0 -1 22 -1562275408 -1861662713 134443331 -173340557
            -1614131057 -388227006 -911582509 -875568573</internalNodes>
          <leafValues>
            -5.3699380159378052e-01 4.6106672286987305e-01</leafValues></_>
        <_>
          <internalNodes>
            0 -1 46 -582527916 2078212929 67650 979189839 -350519272
            -1324396480 -645747528 1898140998</internalNodes>
          <leafValues>
            -7.5371682643890381e-01 3.3057588338851929e-01</leafValues></_>
        <_>
          <internalNodes>
            0 -1 30 1313573314 -284600820 134300048 -754196311
            -2077676641 1209171969 134357650 -55876576</internalNodes>
          <leafValues>
            -5.5548888444900513e-01 4.3202966451644897e-01</leafValues></_></weakClassifiers></_>
    <!-- stage 10 -->
    <_>
      <maxWeakCount>8</maxWeakCount>
      <stageThreshold>-1.0175529718399048e+00</stageThreshold>
      <weakClassifiers>
        <_>
          <internalNodes>
            0 -1 16 -1043930137 -1022424981 19218647 -795106417
            1358971143 -918058877 -1335661981 -298783197</internalNodes>
          <leafValues>
            -6.6883116960525513e-01 3.8636362552642822e-01</leafValues></_>
        <_>
          <internalNodes>
            0 -1 27 -231028776 -2120216094 150995089 -644004862
            -1323180311 -22263637 -1433773329 -61520891</internalNodes>
          <leafValues>
            -6.3891011476516724e-01 3.5852429270744324e-01</leafValues></_>
        <_>
          <internalNodes>
            0 -1 36 -753432805 1964081931 68194308 -1473211388 50823874
            -844037624 -1156933171 261091211</internalNodes>
          <leafValues>
            -5.7649147510528564e-01 3.7930804491043091e-01</leafValues></_>
        <_>
          <internalNodes>
            0 -1 53 -10489039 -544809976 42123275 1461880380 -1555758703
            -1977413624 1066623405 283939272</internalNodes>
          <leafValues>
            -6.8239986896514893e-01 3.2289218902587891e-01</leafValues></_>
        <_>
          <internalNodes>
            0 -1 43 -201326308 -183861223 1763840413 1563628164
            1166050048 -561508350 -1442801493 -1206874645</internalNodes>
          <leafValues>
            -5.5029028654098511e-01 4.0363758802413940e-01</leafValues></_>
        <_>
          <internalNodes>
            0 -1 48 -99132561 1606556343 -1342061488 274694471
            -1551435268 -1316900862 -66491192 -723781119</internalNodes>
          <leafValues>
            -5.8987641334533691e-01 3.6771681904792786e-01</leafValues></_>
        <_>
          <internalNodes>
            0 -1 2 -45102742 -67546987 277807513 -44034800 1173882584
            2023456938 -92265845 -851869493</internalNodes>
          <leafValues>
            -5.8595925569534302e-01 3.6097434163093567e-01</leafValues></_>
        <_>
          <internalNodes>
            0 -1 23 2077284842 -1911701503 -1064906359 1292386689
            681004498 -930594682 478953094 1850383207</internalNodes>
          <leafValues>
            -6.3700234889984131e-01 3.6804383993148804e-01</leafValues></_></weakClassifiers></_></stages>
  <features>
    <_>
      <rect>
        1 0 5 2</rect></_>
    <_>
      <rect>
        1 0 5 6</rect></_>
    <_>
      <rect>
        1 14 5 2</rect></_>
    <_>
      <rect>
        2 2 4 2</rect></_>
    <_>
      <rect>
        3 0 4 3</rect></_>
    <_>
      <rect>
        3 2 3 6</rect></_>
    <_>
      <rect>
        3 7 5 4</rect></_>
    <_>
      <rect>
        3 8 4 4</rect></_>
    <_>
      <rect>
        3 10 3 3</rect></_>
    <_>
      <rect>
        3 10 5 3</rect></_>
    <_>
      <rect>
        3 11 4 3</rect></_>
    <_>
      <rect>
        4 0 2 2</rect></_>
    <_>
      <rect>
        4 2 5 6</rect></_>
    <_>
      <rect>
        4 6 2 2</rect></_>
    <_>
      <rect>
        4 8 2 2</rect></_>
    <_>
      <rect>
        4 9 1 1</rect></_>
    <_>
      <rect>
        4 9 2 2</rect></_>
    <_>
      <rect>
        4 10 1 1</rect></_>
    <_>
      <rect>
        4 11 2 3</rect></_>
    <_>
      <rect>
        5 0 2 1</rect></_>
    <_>
      <rect>
        5 0 2 6</rect></_>
    <_>
      <rect>
        5 0 4 2</rect></_>
    <_>
      <rect>
        5 3 2 3</rect></_>
    <_>
      <rect>
        5 4 2 3</rect></_>
    <_>
      <rect>
        5 11 3 3</rect></_>
    <_>
      <rect>
        5 14 1 2</rect></_>
    <_>
      <rect>
        5 17 4 1</rect></_>
    <_>
      <rect>
        6 0 2 1</rect></_>
    <_>
      <rect>
        6 0 2 2</rect></_>
    <_>
      <rect>
        6 0 3 6</rect></_>
    <_>
      <rect>
        6 1 1 1</rect></_>
    <_>
      <rect>
        6 1 2 3</rect></_>
    <_>
      <rect>
        6 5 3 4</rect></_>
    <_>
      <rect>
        6 11 2 3</rect></_>
    <_>
      <rect>
        7 0 2 1</rect></_>
    <_>
      <rect>
        7 0 2 2</rect></_>
    <_>
      <rect>
        7 1 4 4</rect></_>
    <_>
      <rect>
        7 5 2 4</rect></_>
    <_>
      <rect>
        7 12 3 2</rect></_>
    <_>
      <rect>
        8 0 3 1</rect></_>
    <_>
      <rect>
        8 1 3 4</rect></_>
    <_>
      <rect>
        8 8 3 4</rect></_>
    <_>
      <rect>
        8 11 1 1</rect></_>
    <_>
      <rect>
        9 0 2 1</rect></_>
    <_>
      <rect>
        9 0 3 1</rect></_>
    <_>
      <rect>
        9 1 2 6</rect></_>
    <_>
      <rect>
        9 2 2 2</rect></_>
    <_>
      <rect>
        9 3 3 3</rect></_>
    <_>
      <rect>
        9 4 2 2</rect></_>
    <_>
      <rect>
        9 10 2 2</rect></_>
    <_>
      <rect>
        10 4 1 1</rect></_>
    <_>
      <rect>
        10 5 1 2</rect></_>
    <_>
      <rect>
        10 7 1 2</rect></_>
    <_>
      <rect>
        10 9 1 2</rect></_>
    <_>
      <rect>
        11 1 1 6</rect></_>
    <_>
      <rect>
        11 5 1 4</rect></_>
    <_>
      <rect>
        11 5 2 2</rect></_>
    <_>
      <rect>
        11 5 2 3</rect></_>
    <_>
      <rect>
        11 6 2 2</rect></_>
    <_>
      <rect>
        11 7 2 2</rect></_>
    <_>
      <rect>
        12 6 2 2</rect></_>
    <_>
      <rect>
        13 5 1 2</rect></_>
    <_>
      <rect>
        13 7 1 1</rect></_>
    <_>
      <rect>
        13 8 1 1</rect></_>
    <_>
      <rect>
        14 8 1 1</rect></_></features></cascade>
</opencv_storage>
