<?xml version="1.0"?>
<opencv_storage>
<cascade>
  <stageType>BOOST</stageType>
  <featureType>LBP</featureType>
  <height>24</height>
  <width>24</width>
  <stageParams>
    <boostType>GAB</boostType>
    <minHitRate>9.9900001287460327e-01</minHitRate>
    <maxFalseAlarm>2.0000000298023224e-01</maxFalseAlarm>
    <weightTrimRate>9.4999999999999996e-01</weightTrimRate>
    <maxDepth>1</maxDepth>
    <maxWeakCount>100</maxWeakCount></stageParams>
  <featureParams>
    <maxCatCount>256</maxCatCount>
    <featSize>1</featSize></featureParams>
  <stageNum>11</stageNum>
  <stages>
    <!-- stage 0 -->
    <_>
      <maxWeakCount>2</maxWeakCount>
      <stageThreshold>-1.3241992890834808e-01</stageThreshold>
      <weakClassifiers>
        <_>
          <internalNodes>
            0 -1 6 -141825334 -204750200 -780119182 -613169982
            -971338785 -351598461 -1878285349 -17</internalNodes>
          <leafValues>
            -9.6674054861068726e-01 8.2588595151901245e-01</leafValues></_>
        <_>
          <internalNodes>
            0 -1 43 -1007685643 -785661421 -2136977390 -345480747
            1095667936 -900480492 -747187480 -97</internalNodes>
          <leafValues>
            -9.0406703948974609e-01 8.3432066440582275e-01</leafValues></_></weakClassifiers></_>
    <!-- stage 1 -->
    <_>
      <maxWeakCount>4</maxWeakCount>
      <stageThreshold>-2.3191908001899719e-01</stageThreshold>
      <weakClassifiers>
        <_>
          <internalNodes>
            0 -1 44 -537398273 -2113325 -871099948 -2166338 -712252956
            -661421437 -240389648 -675285009</internalNodes>
          <leafValues>
            -8.9098995923995972e-01 7.6940816640853882e-01</leafValues></_>
        <_>
          <internalNodes>
            0 -1 31 -738755755 -33589413 -1526622849 -176205757
            -1329001576 -389724279 -1171653716 -12845121</internalNodes>
          <leafValues>
            -7.9868894815444946e-01 8.4115469455718994e-01</leafValues></_>
        <_>
          <internalNodes>
            0 -1 17 -570698244 -2112513 2023051703 -544247809 -614926948
            -86630261 -416223492 -67187714</internalNodes>
          <leafValues>
            -9.4916003942489624e-01 7.2379893064498901e-01</leafValues></_>
        <_>
          <internalNodes>
            0 -1 32 -673751717 -6598285 -620667529 -2263847 -192380600
            -72937205 -75441752 -97860406</internalNodes>
          <leafValues>
            -8.2806450128555298e-01 7.4652183055877686e-01</leafValues></_></weakClassifiers></_>
    <!-- stage 2 -->
    <_>
      <maxWeakCount>4</maxWeakCount>
      <stageThreshold>-2.7054768800735474e-01</stageThreshold>
      <weakClassifiers>
        <_>
          <internalNodes>
            0 -1 3 -674299905 -750382881 16909087 487407903 -125114134
            -121069112 -494144337 1527458831</internalNodes>
          <leafValues>
            -8.6383926868438721e-01 7.4693250656127930e-01</leafValues></_>
        <_>
          <internalNodes>
            0 -1 37 -6300674 -10502773 1627496735 -586426069 -611332900
            1392967808 -364659793 -201853961</internalNodes>
          <leafValues>
            -8.6886340379714966e-01 7.1714293956756592e-01</leafValues></_>
        <_>
          <internalNodes>
            0 -1 38 -738460801 -70119081 1099485406 1578374155
            -107231143 -81538472 -763311416 -89130277</internalNodes>
          <leafValues>
            -7.9424655437469482e-01 7.6835787296295166e-01</leafValues></_>
        <_>
          <internalNodes>
            0 -1 14 -219618610 -69004841 -132654883 -69236343 -87389969
            -24639349 -259094337 -1158739233</internalNodes>
          <leafValues>
            -8.9220923185348511e-01 7.0239049196243286e-01</leafValues></_></weakClassifiers></_>
    <!-- stage 3 -->
    <_>
      <maxWeakCount>4</maxWeakCount>
      <stageThreshold>-2.3486116528511047e-01</stageThreshold>
      <weakClassifiers>
        <_>
          <internalNodes>
            0 -1 7 -1 -1 -1090584578 1073787867 -553930321 -8273792
            -16777217 -11141121</internalNodes>
          <leafValues>
            -7.6229506731033325e-01 7.7124184370040894e-01</leafValues></_>
        <_>
          <internalNodes>
            0 -1 48 -939792385 -349204473 -766926411 -72390257
            1101787637 -1885870409 15987700 -740820001</internalNodes>
          <leafValues>
            -8.3782601356506348e-01 6.7888879776000977e-01</leafValues></_>
        <_>
          <internalNodes>
            0 -1 26 -102957057 -619316859 17334531 89496479 -772867589
            142704785 403547051 1574304767</internalNodes>
          <leafValues>
            -8.6932301521301270e-01 6.5105777978897095e-01</leafValues></_>
        <_>
          <internalNodes>
            0 -1 21 947123583 -706901793 755391711 529505757 -36713732
            -610410353 -1449709892 -1074847080</internalNodes>
          <leafValues>
            -8.0251264572143555e-01 7.3288369178771973e-01</leafValues></_></weakClassifiers></_>
    <!-- stage 4 -->
    <_>
      <maxWeakCount>4</maxWeakCount>
      <stageThreshold>-4.1893419623374939e-01</stageThreshold>
      <weakClassifiers>
        <_>
          <internalNodes>
            0 -1 45 -103056401 -551857725 -1856792590 -208553285
            -82873597 -1088746998 -1277954189 -5250377</internalNodes>
          <leafValues>
            -8.5185188055038452e-01 7.0059877634048462e-01</leafValues></_>
        <_>
          <internalNodes>
            0 -1 12 -7340065 -547634245 1078120602 -229450241 -615806552
            -83228666 -527777074 -75505713</internalNodes>
          <leafValues>
            -7.5367963314056396e-01 7.4006104469299316e-01</leafValues></_>
        <_>
          <internalNodes>
            0 -1 29 -573614251 -740605253 -464259749 -10584881
            -266210632 -1161686853 -131925318 2134518715</internalNodes>
          <leafValues>
            -9.0787440538406372e-01 6.2455570697784424e-01</leafValues></_>
        <_>
          <internalNodes>
            0 -1 23 528418663 -539027361 806601535 1944027231
            -2121614063 -16531389 -348065200 -77608225</internalNodes>
          <leafValues>
            -8.9096778631210327e-01 5.6204158067703247e-01</leafValues></_></weakClassifiers></_>
    <!-- stage 5 -->
    <_>
      <maxWeakCount>4</maxWeakCount>
      <stageThreshold>-2.1084201335906982e-01</stageThreshold>
      <weakClassifiers>
        <_>
          <internalNodes>
            0 -1 8 -2107905 -607165041 268865812 2063778207 -569642280
            1141768728 -905780310 1313602267</internalNodes>
          <leafValues>
            -7.8733032941818237e-01 6.8085104227066040e-01</leafValues></_>
        <_>
          <internalNodes>
            0 -1 20 -748421121 -246136361 286380503 -648816369
            -458111745 -652098287 -58737412 -18382</internalNodes>
          <leafValues>
            -7.0978105068206787e-01 7.2920066118240356e-01</leafValues></_>
        <_>
          <internalNodes>
            0 -1 36 -2623649 -607313899 -1820240933 -82469045
            -1147676411 -551449590 -494343670 -93586737</internalNodes>
          <leafValues>
            -7.8039932250976562e-01 6.7169553041458130e-01</leafValues></_>
        <_>
          <internalNodes>
            0 -1 28 -748694433 1367556099 -1467785847 -81854369
            -628915233 -1978056693 -209530529 -15253153</internalNodes>
          <leafValues>
            -8.1670153141021729e-01 6.2768697738647461e-01</leafValues></_></weakClassifiers></_>
    <!-- stage 6 -->
    <_>
      <maxWeakCount>4</maxWeakCount>
      <stageThreshold>-2.7039751410484314e-01</stageThreshold>
      <weakClassifiers>
        <_>
          <internalNodes>
            0 -1 4 -581833233 -69368851 -2053830245 -543612511
            -879637809 -779490130 -796817157 1460995845</internalNodes>
          <leafValues>
            -8.5642319917678833e-01 6.2588906288146973e-01</leafValues></_>
        <_>
          <internalNodes>
            0 -1 49 -235944177 -249880189 -1031453769 -45055538
            1397437079 -1374599001 52245135 -34080689</internalNodes>
          <leafValues>
            -7.0680505037307739e-01 7.0853835344314575e-01</leafValues></_>
        <_>
          <internalNodes>
            0 -1 2 -89395457 973205646 -1040068605 -15735989 -363864437
            302973325 -221926693 -209719265</internalNodes>
          <leafValues>
            -7.2612524032592773e-01 7.1652173995971680e-01</leafValues></_>
        <_>
          <internalNodes>
            0 -1 18 1347154295 -640032289 318788575 1562008891
            -250955269 -913798993 -342954786 1530026810</internalNodes>
          <leafValues>
            -8.3303958177566528e-01 6.0361254215240479e-01</leafValues></_></weakClassifiers></_>
    <!-- stage 7 -->
    <_>
      <maxWeakCount>6</maxWeakCount>
      <stageThreshold>-2.8108215332031250e-01</stageThreshold>
      <weakClassifiers>
        <_>
          <internalNodes>
            0 -1 47 -1009782849 -71042321 -1064671489 -715038705
            1202352996 -1138506110 -292080983 -470297617</internalNodes>
          <leafValues>
            -7.8828829526901245e-01 6.8597561120986938e-01</leafValues></_>
        <_>
          <internalNodes>
            0 -1 19 -1082979019 -1278133961 -1857772323 492765343
            -1207202576 -364697562 -117206017 -335566401</internalNodes>
          <leafValues>
            -7.4445515871047974e-01 6.5594756603240967e-01</leafValues></_>
        <_>
          <internalNodes>
            0 -1 9 -585637641 2081095882 1090871769 -251404385
            -662560628 -670948344 539015354 -82895969</internalNodes>
          <leafValues>
            -6.9791918992996216e-01 7.1690857410430908e-01</leafValues></_>
        <_>
          <internalNodes>
            0 -1 42 -252652321 -640614137 1393064095 -96925675
            -636827380 -2007789495 -215422248 -234189665</internalNodes>
          <leafValues>
            -6.9733184576034546e-01 7.0857602357864380e-01</leafValues></_>
        <_>
          <internalNodes>
            0 -1 27 -887226401 -2137465827 -1828681341 16896010
            1347455113 4233 641497 534764459</internalNodes>
          <leafValues>
            -8.0335092544555664e-01 6.6732889413833618e-01</leafValues></_>
        <_>
          <internalNodes>
            0 -1 10 -1625824845 -1484070484 -1056908969 -6320108
            168474523 -318062591 -1149204333 -716193787</internalNodes>
          <leafValues>
            -7.5808483362197876e-01 6.4395260810852051e-01</leafValues></_></weakClassifiers></_>
    <!-- stage 8 -->
    <_>
      <maxWeakCount>6</maxWeakCount>
      <stageThreshold>-1.5120334625244141e+00</stageThreshold>
      <weakClassifiers>
        <_>
          <internalNodes>
            0 -1 22 -101335331 -103247371 -1052404769 -44560263
            -1426019847 -82935387 -1045790211 1594622713</internalNodes>
          <leafValues>
            -7.2216331958770752e-01 7.0087510347366333e-01</leafValues></_>
        <_>
          <internalNodes>
            0 -1 40 -786435073 -1060371830 -1789909100 -460816172
            -216428148 -1879011160 -73684046 -34737409</internalNodes>
          <leafValues>
            -7.4208635091781616e-01 6.5280592441558838e-01</leafValues></_>
        <_>
          <internalNodes>
            0 -1 0 -1819045385 -2391785 -2045292070 -252309480
            -1541168981 -1144291094 -1886664514 -191199080</internalNodes>
          <leafValues>
            -8.4918284416198730e-01 5.8213615417480469e-01</leafValues></_>
        <_>
          <internalNodes>
            0 -1 46 -1285574477 -1188395858 -553578219 -11683244
            914736618 -1142390656 -1056919390 -70270903</internalNodes>
          <leafValues>
            -6.5935236215591431e-01 7.1048933267593384e-01</leafValues></_>
        <_>
          <internalNodes>
            0 -1 25 -773744751 -39780331 1412635424 2048072455
            -1575951957 -1476329462 -1728382022 816367322</internalNodes>
          <leafValues>
            -7.3626619577407837e-01 6.7936593294143677e-01</leafValues></_>
        <_>
          <internalNodes>
            0 -1 30 1575876927 534532247 1359020685 532529313 -259655239
            -1986768757 -1784599253 -610666561</internalNodes>
          <leafValues>
            -6.5733981132507324e-01 7.0619797706604004e-01</leafValues></_></weakClassifiers></_>
    <!-- stage 9 -->
    <_>
      <maxWeakCount>6</maxWeakCount>
      <stageThreshold>-4.8748612403869629e-01</stageThreshold>
      <weakClassifiers>
        <_>
          <internalNodes>
            0 -1 13 1113773051 -695054318 223597853 1565462784 168014841
            -58187115 487552939 1565476295</internalNodes>
          <leafValues>
            -8.2085889577865601e-01 6.2743681669235229e-01</leafValues></_>
        <_>
          <internalNodes>
            0 -1 33 -90705001 -1052307197 -518596478 -731652030
            -511454025 -788508273 205571276 -16781083</internalNodes>
          <leafValues>
            -8.1013232469558716e-01 6.0592567920684814e-01</leafValues></_>
        <_>
          <internalNodes>
            0 -1 39 2012735423 -484984429 1620353356 1082425618
            -1320433408 -1740013430 -84413490 -724567585</internalNodes>
          <leafValues>
            -7.4666690826416016e-01 6.6007900238037109e-01</leafValues></_>
        <_>
          <internalNodes>
            0 -1 5 -208536577 -519330427 -721387389 -672935285
            -931026781 -787971966 -2105163301 251904597</internalNodes>
          <leafValues>
            -7.2261554002761841e-01 6.8337267637252808e-01</leafValues></_>
        <_>
          <internalNodes>
            0 -1 15 -543500361 -792522685 1099071667 -636858305
            -2012560754 1073823785 -2113752445 -1150617973</internalNodes>
          <leafValues>
            -8.0894386768341064e-01 6.1002033948898315e-01</leafValues></_>
        <_>
          <internalNodes>
            0 -1 16 1574908785 -478150257 -2138856105 -482015983
            -2086722628 -651580911 -1803230516 -73422085</internalNodes>
          <leafValues>
            -8.0996692180633545e-01 6.1252582073211670e-01</leafValues></_></weakClassifiers></_>
    <!-- stage 10 -->
    <_>
      <maxWeakCount>6</maxWeakCount>
      <stageThreshold>-6.7415386438369751e-01</stageThreshold>
      <weakClassifiers>
        <_>
          <internalNodes>
            0 -1 11 274775039 -787865109 -1055800319 -44759808
            -664226849 -71652933 1233953163 -820999903</internalNodes>
          <leafValues>
            -8.0363637208938599e-01 6.2763637304306030e-01</leafValues></_>
        <_>
          <internalNodes>
            0 -1 35 -207748513 -90488827 839762335 -615563249
            -1836464184 -364150517 456827850 2047538111</internalNodes>
          <leafValues>
            -8.5361272096633911e-01 5.4027003049850464e-01</leafValues></_>
        <_>
          <internalNodes>
            0 -1 1 -289413121 -1559256295 1998934236 -83519483
            -880619573 543883331 1103332056 -5255040</internalNodes>
          <leafValues>
            -7.3380511999130249e-01 6.2791103124618530e-01</leafValues></_>
        <_>
          <internalNodes>
            0 -1 41 -1760955941 -1044381663 285325650 -678100721
            168337451 -352124896 -2003916592 -1711765069</internalNodes>
          <leafValues>
            -7.6981472969055176e-01 6.0375714302062988e-01</leafValues></_>
        <_>
          <internalNodes>
            0 -1 24 -231385515 -787673061 1400903159 -41131621
            -771178552 -637337470 -231939432 -1083424052</internalNodes>
          <leafValues>
            -8.1419551372528076e-01 5.9651535749435425e-01</leafValues></_>
        <_>
          <internalNodes>
            0 -1 34 -208152165 -914063296 16897563 400003467 1632297131
            -1635732854 -1357765869 534743807</internalNodes>
          <leafValues>
            -8.2327425479888916e-01 5.3345596790313721e-01</leafValues></_></weakClassifiers></_></stages>
  <features>
    <_>
      <rect>
        0 14 4 1</rect></_>
    <_>
      <rect>
        2 8 2 2</rect></_>
    <_>
      <rect>
        2 8 2 3</rect></_>
    <_>
      <rect>
        3 3 5 5</rect></_>
    <_>
      <rect>
        3 4 3 3</rect></_>
    <_>
      <rect>
        3 5 2 2</rect></_>
    <_>
      <rect>
        3 10 4 3</rect></_>
    <_>
      <rect>
        3 13 2 2</rect></_>
    <_>
      <rect>
        4 12 1 2</rect></_>
    <_>
      <rect>
        4 17 2 1</rect></_>
    <_>
      <rect>
        5 4 1 1</rect></_>
    <_>
      <rect>
        5 4 2 2</rect></_>
    <_>
      <rect>
        5 14 1 1</rect></_>
    <_>
      <rect>
        6 4 2 1</rect></_>
    <_>
      <rect>
        7 3 3 2</rect></_>
    <_>
      <rect>
        7 9 1 5</rect></_>
    <_>
      <rect>
        7 12 2 2</rect></_>
    <_>
      <rect>
        7 13 2 2</rect></_>
    <_>
      <rect>
        7 17 2 1</rect></_>
    <_>
      <rect>
        8 10 2 2</rect></_>
    <_>
      <rect>
        8 15 2 2</rect></_>
    <_>
      <rect>
        8 17 2 1</rect></_>
    <_>
      <rect>
        9 3 2 1</rect></_>
    <_>
      <rect>
        10 12 1 1</rect></_>
    <_>
      <rect>
        12 5 1 1</rect></_>
    <_>
      <rect>
        12 11 4 2</rect></_>
    <_>
      <rect>
        12 12 3 3</rect></_>
    <_>
      <rect>
        12 13 2 3</rect></_>
    <_>
      <rect>
        13 0 2 4</rect></_>
    <_>
      <rect>
        13 4 1 1</rect></_>
    <_>
      <rect>
        13 14 2 2</rect></_>
    <_>
      <rect>
        14 5 1 1</rect></_>
    <_>
      <rect>
        14 6 1 1</rect></_>
    <_>
      <rect>
        14 7 2 5</rect></_>
    <_>
      <rect>
        14 14 2 2</rect></_>
    <_>
      <rect>
        15 4 1 1</rect></_>
    <_>
      <rect>
        15 6 1 1</rect></_>
    <_>
      <rect>
        15 6 2 4</rect></_>
    <_>
      <rect>
        15 7 1 1</rect></_>
    <_>
      <rect>
        15 8 1 2</rect></_>
    <_>
      <rect>
        15 9 1 2</rect></_>
    <_>
      <rect>
        15 12 2 1</rect></_>
    <_>
      <rect>
        16 4 1 1</rect></_>
    <_>
      <rect>
        16 7 1 3</rect></_>
    <_>
      <rect>
        16 9 1 2</rect></_>
    <_>
      <rect>
        16 11 2 1</rect></_>
    <_>
      <rect>
        16 17 1 1</rect></_>
    <_>
      <rect>
        17 8 1 2</rect></_>
    <_>
      <rect>
        17 9 1 2</rect></_>
    <_>
      <rect>
        18 8 1 2</rect></_></features></cascade>
</opencv_storage>
